{
  "hidden": [],
  "inputs": [],
  "numInputs": 25,
  "numHidden": 45,
  "numOutputs": 4,
  "bias0": {
    "rows": 1,
    "cols": 45,
    "data": [
      [
        0.002647721218592025,
        0.9055220146544194,
        -0.28538270967586943,
        0.03553299243772834,
        -0.4964471762040019,
        -0.32908879118539636,
        0.8554465704776133,
        0.6981361822834682,
        0.5330724568063792,
        0.7468561558044389,
        -0.0347646771130421,
        0.7231258085052961,
        0.6016734633604885,
        -0.6290873894800959,
        -0.8778312375253243,
        -0.9358656025261838,
        -0.4168519254811138,
        0.14742608397472434,
        0.8480601804006267,
        -0.7569819974853815,
        -0.08096491712600473,
        0.8246120244332578,
        0.30746775442557794,
        -0.40941929322445647,
        -0.29690701771424166,
        -0.8267343004288494,
        -0.21416850828463163,
        0.8726159604645165,
        -0.8706887702764741,
        -0.12739597209419617,
        0.39204926516202976,
        -0.7894533207416741,
        0.9145148674255772,
        0.822041279422407,
        0.2732356704089338,
        0.920865533108338,
        0.8707451152847878,
        0.6370200618536392,
        -0.42975319362978937,
        -0.6544602612887229,
        0.9976660268904829,
        0.03882463969598904,
        -0.42819280691232864,
        -0.39908754720051975,
        -0.38106267630386936
      ]
    ]
  },
  "bias1": {
    "rows": 1,
    "cols": 4,
    "data": [
      [
        0.8910088407554828,
        -0.6532031136219283,
        -0.2565664041030833,
        0.2661046546583661
      ]
    ]
  },
  "weights0": {
    "rows": 25,
    "cols": 45,
    "data": [
      [
        0.0946081739203204,
        0.6641514255364824,
        -0.1502465700236293,
        -0.8322916806738161,
        0.5769347403367608,
        0.7165021962491425,
        -0.7458023550893524,
        -0.13782558833163971,
        -0.5036057370169709,
        0.21368045596924956,
        -0.5389181079051468,
        -0.31897664865096864,
        0.12105891417586268,
        -0.17651398368412785,
        0.038211199445178146,
        -0.8286509584383639,
        -0.5714958535257755,
        -0.7336659420949565,
        0.7629890343216741,
        -0.5349361968911812,
        0.9436042633851862,
        -0.17831619606389681,
        0.28952770393379357,
        -0.14520415543568888,
        0.9974761528861422,
        0.8433269199115969,
        0.2393859727138703,
        -0.7914060504222151,
        0.6949036986547905,
        0.37431345661866056,
        -0.1534671529659315,
        0.11073715763069014,
        0.08252630467125321,
        -0.5505148794468044,
        -0.7393113204493029,
        0.8290338393246492,
        -0.5566299077917631,
        0.03357490018916254,
        0.7318490456130449,
        0.2760009716249576,
        0.9485484432259939,
        -0.7422989655551198,
        0.711228373110163,
        -0.05462205133687492,
        -0.8690105203431888
      ],
      [
        -0.35195774286195647,
        0.6491290490440522,
        -0.008932352769414731,
        -0.22026090508802953,
        -0.7134291691499031,
        0.8651282601753847,
        -0.709697977428172,
        -0.013858149127931707,
        -0.5145761024212461,
        0.3829932074238549,
        -0.35763338476358575,
        0.9914109984893842,
        0.9945920291975687,
        -0.5987236025202654,
        0.021537138913350073,
        0.8039861539941842,
        0.05416438241934207,
        0.844026695991464,
        0.6977254633418246,
        -0.45368732449594473,
        0.8627673264632723,
        0.08362868541268709,
        0.5331613131780224,
        0.1488117850626307,
        -0.8601552780431834,
        0.43545656403657285,
        0.8664758882499859,
        -0.013283693140008879,
        0.3231664243861996,
        0.709477675851268,
        0.35306784393020685,
        -0.995283253971869,
        -0.8235107108604192,
        -0.7234570482670941,
        -0.4539522080811049,
        -0.28989357091697876,
        -0.48438516352499494,
        -0.9073080860317835,
        -0.31590649699962103,
        -0.7674311981180231,
        0.3627657631716139,
        0.06743150487470118,
        0.9003936849132019,
        -0.9947212978249116,
        0.11458217843835872
      ],
      [
        0.7106777028580424,
        -0.5917796193483791,
        -0.7919612041783806,
        0.7417847961889055,
        -0.17200072327868154,
        0.9979484758430557,
        -0.7128833061749207,
        -0.40121827288943157,
        -0.2741918074766545,
        0.14065587731105378,
        0.2046051815511385,
        0.6589200165143745,
        -0.616160512645409,
        -0.555773767021289,
        -0.3060199458502231,
        -0.441586934546347,
        0.3652424080575867,
        0.8066489835997253,
        0.8893093395336527,
        0.7136406430954239,
        -0.7563802696438993,
        -0.0013647716065077198,
        0.32843751736670734,
        -0.36423369899904534,
        -0.06631581998760216,
        0.4589077498506313,
        -0.467456928375412,
        0.9218342410530251,
        -0.5662907302925526,
        0.44870411890634676,
        0.25038580491685947,
        -0.8604285635558409,
        -0.6254509406835553,
        -0.06403439316675552,
        -0.7792918044268742,
        0.3956060048024086,
        0.41471507769222615,
        -0.04132473746891874,
        0.31388101685155023,
        0.4428893124293083,
        0.909398292173047,
        -0.9865657562054109,
        0.8529305690451783,
        0.34295374848256177,
        0.9070076223644685
      ],
      [
        -0.965447817401119,
        -0.1184140437860477,
        0.39807767263830085,
        -0.7630665633467113,
        0.9420297930040644,
        0.7670745895312656,
        -0.6912552739993072,
        0.3752132558071857,
        0.21082974736869708,
        0.2911116031235208,
        0.13914720568871042,
        0.3291305589241218,
        -0.7638394480236466,
        0.6756139717788261,
        0.4219290001843543,
        0.7165235837909925,
        -0.7187160759062019,
        0.25435933398217303,
        0.6209593526586845,
        -0.6899849694604336,
        0.25077230557577845,
        -0.9223214254934518,
        0.008544960002000668,
        0.6842223103067742,
        0.5090028268012174,
        0.9345013808276579,
        -0.2543126551607693,
        0.9476214215571845,
        0.0568335368262618,
        -0.9304782236728903,
        0.7500470724245591,
        -0.8652918396038909,
        -0.9300234375584431,
        0.49665609593105353,
        -0.11536055210640006,
        -0.45632635499784735,
        -0.16866079087213315,
        0.1568497977495329,
        -0.8843386315585464,
        0.9769929422183905,
        -0.6547589600549304,
        -0.7030711255523268,
        0.1112851034936071,
        0.9616035311049291,
        -0.0806152815745147
      ],
      [
        -0.17579176298628463,
        0.29162138095885526,
        0.5747985893361904,
        0.18459462688822503,
        0.24246806020831357,
        -0.6415052066628522,
        -0.5201479052137237,
        -0.9116353729936697,
        0.8078021567865732,
        0.17633568750118345,
        -0.04345058322298323,
        -0.8073043932369419,
        -0.5095018483021341,
        -0.575498804258952,
        0.8072743264871889,
        -0.956358950044391,
        -0.5710602215047698,
        0.42942941703556015,
        0.3055119878106436,
        0.8778490737963174,
        0.7639531405266591,
        -0.2681566959020252,
        -0.6981702793628859,
        0.41676254415900926,
        -0.5950594840706427,
        -0.6835246849243677,
        -0.6233925415291721,
        -0.31649081427949355,
        -0.1428317921305875,
        -0.7516002310402468,
        -0.15510937725239637,
        0.16091892818150644,
        -0.32144721001098997,
        0.14166195726907915,
        0.8850126766604061,
        -0.47641298135128807,
        0.21753982601875466,
        -0.5376580022754127,
        -0.45765330864537423,
        -0.8986019019531022,
        -0.6241487324777912,
        -0.038490943654823084,
        -0.5606449961571371,
        0.6461059019122048,
        -0.9376673871096357
      ],
      [
        0.09314283602513562,
        0.006447088692273617,
        -0.8179621431541886,
        -0.15202856522094388,
        -0.9067713169733791,
        -0.6922416090959285,
        0.7359592790952232,
        -0.495219057616445,
        -0.18589688222152434,
        -0.09815851246934848,
        0.15651549336217752,
        0.8872623657465804,
        -0.9546066817487855,
        -0.29275520253521004,
        -0.7630936493103397,
        -0.15140791955301047,
        0.32304509572259876,
        -0.5379326433876979,
        0.8070610660979667,
        -0.36538182448012346,
        0.6852153258062699,
        0.03521990966823774,
        -0.10911461594666294,
        0.5614769918197378,
        -0.9902244316509217,
        -0.5353786964879004,
        0.46811783483898495,
        -0.6825409753300309,
        0.163650281476321,
        0.34344556150008243,
        0.5049931999819028,
        -0.4123787578336926,
        0.29218868813228793,
        0.7503171100808999,
        -0.8198849387619531,
        -0.9960658629244561,
        -0.9916040686730607,
        -0.6278042362831213,
        0.298821814856157,
        -0.054764999633700295,
        0.8300595777025972,
        -0.04714729338122936,
        -0.4691176859348918,
        -0.3742107356770008,
        -0.8317389428713882
      ],
      [
        -0.6377774665119667,
        -0.6010067381177868,
        -0.8482744562032787,
        0.5939440545617445,
        0.26591050382127035,
        0.5747620236324344,
        -0.7617451046553381,
        0.30984674420157443,
        -0.9138515714417728,
        -0.31027079662188983,
        -0.917693292930188,
        0.7529598946015503,
        -0.2964816830156285,
        0.5656779874275593,
        -0.3702352615340345,
        0.19000244201127758,
        0.2189582183803993,
        0.9671244617726891,
        -0.4214608243136011,
        -0.425271279790584,
        0.2848779334882354,
        0.3409238516079385,
        0.5060252687578326,
        -0.36927456048711527,
        -0.3205729066037821,
        -0.22742142837088863,
        0.5146684553040006,
        0.2630002523467647,
        -0.6803764620562243,
        -0.20713378839551133,
        0.2945837752231779,
        -0.7390876098734864,
        -0.7750495447759356,
        0.9717904942117688,
        0.9716615946657168,
        0.8915971004049514,
        -0.16899476020285364,
        -0.7729009340386801,
        -0.45788307285747054,
        0.03242584720705066,
        -0.9629507605096874,
        -0.8712080559762208,
        -0.46701042262685055,
        -0.1285578647584522,
        -0.46012558167823014
      ],
      [
        -0.8186666391409925,
        0.5000804832015797,
        0.02532132346317928,
        0.920795611002537,
        0.27871175604359344,
        -0.4194607471607994,
        0.511419572480138,
        0.22635080642242977,
        0.43254802638954404,
        -0.11464635006276058,
        -0.6949186613692899,
        0.46486685971935815,
        0.10785271344670821,
        0.7763528424011854,
        0.9907175454954404,
        0.17884839648055229,
        0.8134182693519136,
        0.33561201771949767,
        0.8993529546664343,
        0.9225875586266645,
        0.36118857114993563,
        -0.34719299186249764,
        0.6937642446481753,
        0.09061360438894583,
        -0.21376270804018338,
        0.2761870141847771,
        0.7406423326621203,
        -0.3687603051255617,
        -0.3728111104325258,
        0.7457978427319465,
        -0.1808388457431196,
        0.054374740784906006,
        -0.7570636410110372,
        0.7483330426199184,
        -0.6187372355607463,
        -0.531138700405716,
        -0.46304123805923725,
        -0.49330276959521724,
        0.9745562010144679,
        0.7840684281880104,
        -0.9074468433577869,
        -0.7553472660215066,
        0.7944338184025295,
        -0.09258090073506775,
        -0.3528378575567266
      ],
      [
        0.06862132085729877,
        -0.9773428803578064,
        0.1732504628732805,
        0.3541615545914243,
        0.5131998013553436,
        0.45089050133305486,
        -0.33827896722786255,
        0.2126885561614178,
        -0.2172749827365692,
        -0.7663162637652765,
        -0.1232679707562907,
        -0.47991891273826015,
        -0.9846379278542634,
        0.42779897679921497,
        -0.9370024808252815,
        0.5340741822092956,
        -0.9311376171068266,
        -0.15391430188858424,
        -0.6150986348777367,
        0.2517223331987366,
        -0.7132223343598318,
        -0.6559503893190946,
        -0.4402927615718548,
        -0.7912672896842294,
        -0.4113533289225182,
        -0.49709509155903175,
        -0.6282586710775062,
        -0.373163640535211,
        0.23539111160926307,
        -0.24017341494254962,
        0.7253768776788183,
        -0.7220829445493728,
        -0.8047218548988568,
        0.8554384317941826,
        -0.4989577032264956,
        -0.34939146218557227,
        0.34068935457151284,
        -0.9786522440574683,
        0.9371651102169758,
        0.5085564147106214,
        -0.8761465016611414,
        0.4428311497207682,
        -0.26839878147576934,
        -0.31544978676335544,
        0.2635685610833449
      ],
      [
        0.5327599514959531,
        -0.062451811928412315,
        0.43482566959912505,
        0.48551903809427,
        0.6507627617141858,
        -0.9006177468037739,
        0.5506057977274952,
        0.5307290639476276,
        -0.098592408969151,
        0.22767977199499922,
        0.9032211581706169,
        -0.3719269643885146,
        0.8271406387488756,
        0.3839988788738551,
        -0.8664867189381162,
        -0.04115918786901096,
        0.54090349243,
        -0.8743556294853896,
        0.7552531263973914,
        -0.5885606370164163,
        -0.6374907545944084,
        0.8216051942688258,
        -0.6768877673049714,
        -0.20991762977454798,
        -0.015474987688850028,
        -0.4571057871507649,
        0.4642349482363164,
        -0.9868414404379369,
        0.13103194561481857,
        -0.6265273442965587,
        -0.4401738712316159,
        0.4824006164960193,
        0.07851110408943773,
        -0.5659995076761577,
        0.6525229048145738,
        0.5180719255907693,
        0.2718977211932718,
        -0.6733605178786797,
        -0.8617366303806011,
        0.5614588257165334,
        -0.62260677839555,
        -0.28064544917926604,
        0.5738832104564708,
        0.7711771650480506,
        0.14663332050297173
      ],
      [
        -0.6761633520862178,
        -0.6213689933020277,
        -0.40079013470896285,
        0.822421451569296,
        -0.551429602676301,
        0.9844739867132306,
        0.058972895981929785,
        0.5677816133338545,
        0.5282181620059041,
        0.9054586820698507,
        0.5779583393601668,
        -0.09052674615992906,
        0.49555683414339624,
        -0.00010950399163300872,
        -0.23413929102445552,
        0.5832512000202907,
        0.7239597924440542,
        -0.7130572323519848,
        0.36952575236816365,
        0.13652279466539818,
        0.06208294050612739,
        0.9805161757768692,
        0.05229139026275709,
        -0.8473938920348694,
        -0.32076698189231667,
        -0.4114956723724692,
        0.8171944517993479,
        -0.05956915423451514,
        -0.029409188057742952,
        0.9188103543412143,
        -0.21098949261867928,
        -0.20389629480209992,
        -0.7452573464120906,
        -0.7823740554491447,
        0.09917252505670415,
        -0.8421398369899116,
        0.7285326176995373,
        -0.2812009849960453,
        -0.7013932098855897,
        -0.6538378387119246,
        -0.3613323310549337,
        0.9808751349254683,
        0.13492589953096834,
        0.3952526733028847,
        0.7418320152452789
      ],
      [
        -0.053383807384471904,
        0.5462859591425637,
        -0.48202217560998184,
        -0.7883858077725527,
        0.9803983309781406,
        -0.9566076063563429,
        -0.9406037336069768,
        -0.44386213531769103,
        -0.7783555119123449,
        0.06573720565711705,
        -0.7742425121209893,
        0.9530552452868073,
        -0.7859842791348441,
        0.675183822362527,
        -0.45563089042405824,
        0.7134736260154013,
        -0.04881098191900435,
        0.5987838341069223,
        0.7321494601900049,
        0.5353896222815862,
        0.9481968585686227,
        0.9922623064896245,
        0.20141163431674736,
        -0.4528965644898375,
        -0.2764574257971115,
        -0.7829217898424461,
        -0.46211671498422424,
        0.22635001308393177,
        -0.5256123798007697,
        -0.5543159010783354,
        0.27741519195392605,
        -0.25505190544841705,
        0.011291144101509332,
        0.9317067055155244,
        0.07360553680351867,
        -0.6958867676844966,
        0.15538936517741275,
        -0.12360125301555236,
        -0.9452686563053057,
        0.959593189878245,
        0.9831819534666977,
        0.1297174911653305,
        -0.17270040078893167,
        -0.8911035167464489,
        -0.45091005940043294
      ],
      [
        0.6634794765414731,
        -0.8698075990610463,
        -0.9925315932410461,
        0.7412545222322424,
        0.8228071250633384,
        0.7268991272278491,
        0.795170025501676,
        -0.9910897669587606,
        -0.6131518283524708,
        0.6407298768342891,
        0.7911543909128733,
        -0.04967872901817172,
        0.0962426817906823,
        0.034394846832476844,
        0.18025365391866544,
        -0.905560225819237,
        0.13765145335779838,
        0.967353439287649,
        -0.6800884578905588,
        -0.7106824012850805,
        -0.20688690944286803,
        -0.26359486444112656,
        0.6911796240600037,
        0.7575450900964573,
        0.36875500505606507,
        0.6683849341130368,
        0.9641305225318666,
        -0.3088730661409391,
        -0.8412702760564188,
        -0.05055732500872567,
        0.16721247946074413,
        -0.20666538791586442,
        0.19127879346843235,
        0.311879003522217,
        0.9244586916347837,
        -0.4835140522224908,
        0.8258191030352751,
        -0.6361955355634099,
        -0.5864834899141758,
        -0.05727043484354377,
        0.384286878125506,
        0.8794107968424165,
        -0.4539492090549202,
        -0.2238805683889855,
        0.9216191352045549
      ],
      [
        -0.8334883414774144,
        0.8122098514061658,
        -0.7754376101358429,
        -0.8918831435777919,
        0.7010652505131398,
        -0.41613254059477,
        -0.3902561990072613,
        -0.25523391748625857,
        0.18829978374683698,
        -0.24830778737175185,
        -0.26263269194454475,
        0.3109134674064369,
        -0.6253652960496487,
        -0.6454480538606369,
        -0.9475970229801809,
        -0.633212084743084,
        -0.12360516896870033,
        0.5701359716668559,
        0.4894867003326877,
        0.5678157200587086,
        -0.8425144235301261,
        0.9284446633591252,
        0.2867894827315829,
        0.10822674606135463,
        -0.0065509469473989945,
        0.3225453754215941,
        -0.6459977671623998,
        -0.9687565490846701,
        -0.7590093161819631,
        0.5575675614866253,
        0.3093966228069269,
        0.27765816758046213,
        0.17294396664883704,
        -0.18341651822039884,
        0.7330897184559229,
        0.7728606087527905,
        0.18174544766785194,
        0.5154580365225794,
        -0.6378623313384306,
        -0.7977225871134173,
        -0.3152960084772194,
        0.6435508886634436,
        0.9423872207840907,
        -0.7130863533592517,
        0.5750415525514367
      ],
      [
        0.8731002834495962,
        0.022298727655800654,
        -0.7267712802770139,
        0.464873578061741,
        -0.6128440713808145,
        -0.0661203884239745,
        0.37145517165837383,
        -0.9061327390329317,
        -0.18840604609388567,
        0.059714537365210596,
        -0.8047924109485844,
        -0.9417775644263218,
        0.3560270537750281,
        -0.8849883933090688,
        -0.8220225070349612,
        -0.947735996160672,
        -0.5891303672686785,
        -0.35172858753728553,
        -0.2704297946208407,
        0.9602661034513247,
        -0.5226689329645451,
        -0.361353734218568,
        0.2796122575396929,
        0.24504385623955427,
        -0.1352440545760838,
        0.03317271715312797,
        0.28379042340420835,
        -0.5552530060473608,
        -0.6898775742879546,
        0.6997627679327736,
        0.7255585519474379,
        -0.11483992262890741,
        -0.468066474867475,
        -0.38977468455664965,
        0.3313066069021806,
        0.05140647562648404,
        -0.35131871701800144,
        0.3339282266597663,
        -0.17753539886624292,
        -0.30574068879035066,
        -0.19927588859808942,
        0.7300038075318449,
        -0.2780587902300473,
        0.21544005958856793,
        0.4726017671830336
      ],
      [
        0.06010356579222309,
        0.8713295052618242,
        -0.48737188273218246,
        -0.1327379335695671,
        -0.7043936147464853,
        0.6450764166871714,
        0.9823680026236818,
        0.2885285725404798,
        -0.07398577049315458,
        0.5111277280590265,
        -0.9058309235592676,
        0.017081334542232707,
        0.3687174628154053,
        0.8751744898917728,
        -0.5685336660839453,
        0.20285653827586358,
        0.39045908974272603,
        0.5480899644697983,
        0.18573281178925027,
        0.028031783613121863,
        -0.2603658931447659,
        0.9923453649957703,
        0.26514768633007035,
        -0.5877083743083666,
        0.30691747599115793,
        -0.9068435203510261,
        -0.27045298948356056,
        -0.5546463881175137,
        0.7953563944269604,
        -0.5785744402153581,
        0.49052749477610424,
        0.6444247600305748,
        -0.2273964748546562,
        -0.3691778479599006,
        -0.8739204085684005,
        0.2544245422377007,
        -0.967107843119996,
        -0.5987604633020309,
        0.7116312798779934,
        -0.5705421280966996,
        -0.17555176800963235,
        0.8062421607797088,
        0.09434414156673787,
        0.9258741416368816,
        0.8490144221461744
      ],
      [
        0.2721216017212993,
        -0.4357719363146195,
        -0.39709004037986073,
        0.6588291686494823,
        0.08163310870481055,
        0.9937039921930184,
        -0.8753124524710496,
        0.247026785606423,
        0.1617012069099273,
        0.27744618867081083,
        0.8382689622140633,
        -0.21107264216503685,
        -0.6573248762453061,
        0.01940817885231727,
        0.6579934336414914,
        -0.5532754814022289,
        0.5988633946421498,
        -0.42486578591230195,
        0.6782515830518756,
        -0.886566026339048,
        0.060732692085495366,
        0.621554917467841,
        -0.16687747564383848,
        0.6242149870769618,
        0.20685487915736855,
        0.867360050418756,
        0.08453178376036075,
        -0.46384641392495496,
        0.6998682244609244,
        -0.867758380391424,
        0.001766273058920742,
        -0.0968690185794685,
        0.16394457906586002,
        0.2645916676240252,
        -0.9380018382950941,
        0.3307695504312065,
        0.6764002993485341,
        0.07948588480316676,
        0.4596953153949621,
        -0.9958035494700246,
        0.8285971435904589,
        0.16038954072125833,
        0.27122875698655236,
        0.12494199891160918,
        0.5612342158531987
      ],
      [
        -0.0404467107942299,
        -0.2903926597788473,
        0.1273943635484449,
        0.2667227766705915,
        0.941785047652917,
        -0.16855545270854178,
        0.6666296196234507,
        -0.7069979657187497,
        -0.19887385669339697,
        0.4578514039190571,
        -0.6955030011877592,
        0.9810865837768996,
        -0.2320888702252577,
        -0.027541902239683225,
        0.06472315498010905,
        0.29749043485583737,
        -0.25059641740312477,
        -0.08458338973108415,
        0.05874554558533651,
        -0.7689371265163216,
        0.42443470309131914,
        -0.07416060822598158,
        0.4042044760958481,
        -0.5203127932213918,
        0.4303527416743691,
        0.8242102591769127,
        -0.04277798075014605,
        -0.44066099414392923,
        -0.25249781954307027,
        -0.3261770475307064,
        0.2605642460252655,
        0.24631080858888055,
        -0.7962193146510614,
        0.13986446378553508,
        0.8282321411595528,
        -0.5170199217140854,
        0.5496308966973733,
        0.9732410973932035,
        0.20100394212576855,
        0.2471928545760993,
        0.11132753652606953,
        0.022969860042808765,
        -0.9600219635128671,
        -0.6873756200839467,
        -0.15175336456244848
      ],
      [
        0.8289872841384183,
        -0.15968133788252503,
        -0.9649859611787215,
        0.612076194652849,
        0.06675893315786974,
        0.22472950263456282,
        -0.3464845941123298,
        0.3369950856238386,
        0.824864578636936,
        -0.8258027238927075,
        -0.6940770512984868,
        -0.13639464980626181,
        0.7824005312557261,
        -0.07768488244250538,
        -0.3894567824396793,
        -0.9270405308396317,
        0.38871168223553143,
        -0.4879179065017909,
        -0.7845082470451819,
        -0.9859468081756462,
        -0.016984604727518615,
        0.7764724786257107,
        -0.6482849831638484,
        0.9707370271461144,
        -0.0014637274816386991,
        -0.4602933465346357,
        0.9976055076859631,
        -0.0045188015241866,
        -0.10780693319512746,
        -0.8191921464304399,
        0.9215961851922496,
        -0.09815727012188269,
        0.36938790401133303,
        0.9036157574093844,
        0.009380547166017106,
        -0.16928718164043177,
        0.8778391137996104,
        -0.5693038281441947,
        0.49149000047057934,
        -0.8935290533964575,
        -0.4505882364657383,
        0.11678356398326883,
        -0.9365082378434471,
        -0.42681102496591494,
        0.7496418045279474
      ],
      [
        0.8050254449530474,
        0.08162872731013193,
        0.9882332263788132,
        0.2690753550181144,
        0.4521510358294081,
        0.7586359926933204,
        -0.6647502313582465,
        0.8660095084144168,
        -0.4826728049385238,
        0.8561473502515415,
        0.8581481598898915,
        0.6693160142088699,
        0.36127628970177783,
        -0.0338087079635816,
        -0.030099710712439443,
        0.33495490004986284,
        0.7390537340080425,
        -0.44045133530043445,
        0.5104270804003237,
        -0.05759716181633978,
        -0.7993982729093587,
        0.4822816520122828,
        0.4345655623246354,
        -0.2525114216512345,
        0.5555186710885898,
        0.03938081649781999,
        -0.40526307434471454,
        -0.6975709916726434,
        0.42307516625007846,
        -0.881927103212,
        0.8353274649345894,
        -0.6777480125347388,
        0.9667616416016735,
        0.624200133042772,
        -0.6226305923531137,
        -0.14507232347994004,
        -0.07142372804682484,
        -0.7567200617993035,
        0.9526277930412377,
        -0.5050609469539644,
        -0.309091181631445,
        -0.9700640692559293,
        0.9782923818702525,
        0.06485354027697277,
        0.43731230734674
      ],
      [
        -0.25230684876191356,
        -0.6432047431346324,
        0.21531985100863826,
        0.3003711852585025,
        -0.3238421870000545,
        -0.79017736562751,
        -0.9368235429240368,
        0.7289499784944784,
        -0.5645869049334595,
        0.8720743705851124,
        0.2391584576377772,
        -0.20891950605977083,
        0.21487745677577497,
        0.30975159388147366,
        -0.1830801174942156,
        0.6448872366414893,
        -0.9335797553818739,
        -0.7349064388357696,
        -0.12930720475502788,
        0.6697522654653638,
        -0.1521621138781022,
        -0.2488484744884878,
        -0.5529696442244441,
        0.3690609840004795,
        -0.046772021777578665,
        -0.6294074111437276,
        -0.7974309208759958,
        -0.3625153534982122,
        0.3395309178205781,
        -0.8617654038919014,
        -0.029011303045721082,
        -0.6283530570402971,
        0.4991028124706416,
        -0.42708996576429614,
        -0.677514582927691,
        0.3791613137373937,
        -0.030438924362114594,
        -0.6326978471427087,
        0.05129929402576927,
        -0.8065491455433307,
        0.3482740398265989,
        -0.9096229674473411,
        0.6063319245344627,
        0.8850176849121132,
        0.12110655319883579
      ],
      [
        -0.18200003950838006,
        -0.0503953728883606,
        0.35336702690875654,
        -0.4306627248010275,
        0.08459173052958668,
        -0.6539881392616138,
        -0.39590956662326615,
        0.42301698703367974,
        -0.8535466401036698,
        -0.8427739883619365,
        -0.8407587830332695,
        -0.2879754646041621,
        0.17617436666245911,
        -0.22203000054428434,
        0.7757358758947008,
        0.1768384189242771,
        0.6523839593014542,
        -0.2804219487844941,
        -0.2801719124203288,
        -0.4258138451018705,
        -0.8749637553827441,
        -0.07711739896708325,
        -0.4866790402865169,
        -0.9544815548940213,
        0.9597870695775352,
        -0.13113604462953532,
        -0.28186278228890904,
        -0.5619583010670959,
        -0.10628102568636688,
        -0.6419512260470439,
        -0.35187004761185214,
        -0.32446022951150155,
        -0.8430452192155795,
        0.740812686031354,
        -0.30122385573870636,
        -0.7099004662515456,
        -0.016759871001649884,
        -0.5592333371166962,
        0.3388361771904411,
        0.8772204848845946,
        -0.0667459551376206,
        -0.7922683677946321,
        -0.04356310557844667,
        0.07089159815491008,
        0.7538414178557993
      ],
      [
        0.8445001891512964,
        -0.0068522808359468,
        -0.7668946843412043,
        -0.5144650070610606,
        0.9845978896746019,
        0.6046321515667783,
        -0.31818070621339833,
        0.5130442041352037,
        -0.6443505925887467,
        0.20257603167898974,
        -0.5041211740343869,
        -0.3025851251358169,
        -0.014114357481420647,
        -0.9069299282390348,
        0.4506217953384506,
        -0.14062789107266216,
        -0.683142426551997,
        -0.22730513700425492,
        -0.29987929392961066,
        -0.2391679740320285,
        0.13838216602491427,
        -0.8891897211030999,
        -0.08453228071536012,
        -0.3687648365252887,
        0.3983985400880141,
        -0.9264662458041699,
        -0.5316027399272771,
        0.9059757603496061,
        -0.3616286276767151,
        -0.1050558529788912,
        -0.08139721426607993,
        -0.38914578299872415,
        -0.382640968421625,
        -0.26111045512504516,
        -0.4956719119957973,
        0.6234259175338455,
        -0.16110542031999353,
        0.9690335622493444,
        0.9708553358690342,
        -0.12126244584285084,
        0.8502148100418045,
        -0.6508079319184623,
        0.12850745029225008,
        -0.8646193318244735,
        -0.5937698605928285
      ],
      [
        0.17324178342696017,
        -0.41968180278446576,
        0.7574573127754847,
        -0.8982592451283788,
        -0.10917457941313646,
        0.1290588225511753,
        -0.9674821135865233,
        0.11053612320100736,
        0.48729925259273,
        0.09304970089867792,
        -0.8408882302064224,
        0.40710620177757617,
        0.8481243372036502,
        0.9653765289185965,
        -0.9671532929260951,
        -0.7248070569590221,
        0.979510272319482,
        0.4768417806494063,
        0.19119735813261007,
        -0.5600700106016943,
        -0.8956373506913629,
        -0.20222131624940287,
        0.06537577798126648,
        -0.0029378963066157837,
        0.9601500156851586,
        -0.6545790049165858,
        -0.36910139949098486,
        -0.5546254460141609,
        0.2323763263337426,
        -0.1848364352059022,
        -0.5085187451862931,
        -0.09691616412614135,
        0.7895578522021389,
        -0.08736803908982971,
        0.2733455181498816,
        -0.7644177004330142,
        0.034795337061977794,
        -0.145619400719724,
        0.019190603695558472,
        -0.507836421285556,
        -0.8088062657526773,
        -0.8379454145029794,
        -0.9403762711190873,
        -0.42763224769207,
        -0.9953009351328697
      ],
      [
        -0.6478070273945202,
        -0.3400386628169314,
        0.9118017087198993,
        -0.3709776547624086,
        -0.13753586045894828,
        -0.6659493258747604,
        0.7991639700929714,
        0.10995084290183232,
        -0.8847159383866057,
        0.1529345691683659,
        -0.6364162677369478,
        0.4230229959337892,
        0.7451291752963627,
        0.1783499713706922,
        0.8570546247342001,
        0.9710208244415552,
        -0.9293386703831077,
        -0.6064138942147954,
        0.6547879955992899,
        -0.4283724645121101,
        0.9308701584725041,
        0.375893367515554,
        0.19463583810452834,
        -0.740890970573703,
        0.9823196572227428,
        -0.5163283632199529,
        0.6870234232786636,
        -0.8482878269145271,
        -0.05578619590706202,
        -0.2726077524286108,
        -0.16287152571073493,
        -0.9842037668215426,
        -0.24016021901933815,
        0.9372195198122442,
        0.5093584875803989,
        -0.3119484346009638,
        -0.6783860474449233,
        -0.9143546858726403,
        0.23731940773954818,
        0.43169144153932315,
        -0.7282938846383109,
        0.8905826550625351,
        0.3875356639162777,
        0.09828681958904228,
        -0.3137515980322525
      ]
    ]
  },
  "weights1": {
    "rows": 45,
    "cols": 4,
    "data": [
      [
        -0.6334905720577941,
        0.17576287617115494,
        -0.7674454103011064,
        0.6837430859436315
      ],
      [
        -0.16377171754220932,
        0.7847641343181957,
        -0.19877292778804723,
        0.6062174582819551
      ],
      [
        -0.1634173989172405,
        -0.8266795420690141,
        0.01366305027462289,
        -0.6284454538264015
      ],
      [
        0.41320663793018664,
        0.7947637994880101,
        -0.3142220912318421,
        -0.6317554438729487
      ],
      [
        -0.5728477702582238,
        0.8610036296126751,
        0.470185373643599,
        0.9867123778346261
      ],
      [
        0.5085970195724996,
        -0.0024763932600642136,
        -0.06961160001163602,
        0.4860386164461121
      ],
      [
        -0.34902987401100294,
        -0.9915485564237212,
        0.08217998664947102,
        -0.23432757559214235
      ],
      [
        -0.6853097074094348,
        -0.6618784954698964,
        -0.4653307726244087,
        -0.7581025494661855
      ],
      [
        0.36812805160492346,
        -0.32260086446348035,
        -0.21795520401193125,
        0.6718349226930291
      ],
      [
        0.7025679126718796,
        -0.8593420702308792,
        -0.7288766118257857,
        -0.6393382264102812
      ],
      [
        0.4757615779372881,
        0.12010434042972173,
        0.9114350742444679,
        0.6981872642954441
      ],
      [
        0.5960640625419522,
        0.42829743379697716,
        -0.3480031099852612,
        -0.5835602721953359
      ],
      [
        0.6505595943781022,
        -0.883425257270742,
        -0.07233007710625516,
        0.4293746488530581
      ],
      [
        -0.9189796949835438,
        0.218257225369201,
        0.2112722496811612,
        0.7770213815976743
      ],
      [
        0.451531829037326,
        -0.8072413782834689,
        0.6534906502433744,
        -0.6434362170612062
      ],
      [
        -0.4935644279870055,
        0.7202920180414121,
        0.6559053203840897,
        0.787384728956368
      ],
      [
        -0.04596369236073716,
        0.22676515935089325,
        0.9820964584882432,
        -0.5474526049845156
      ],
      [
        0.9906120845854334,
        -0.040998282021972976,
        0.4459193322084247,
        0.9904573532562142
      ],
      [
        -0.7612191799387151,
        -0.9828453339669192,
        0.3562292319061875,
        -0.8262725532183572
      ],
      [
        -0.5913022328882049,
        0.44762336826582727,
        -0.2424318958793661,
        0.9380941704705728
      ],
      [
        0.6636110060716942,
        0.41018571740525056,
        -0.791249876108377,
        -0.1479640573108818
      ],
      [
        -0.06486821172602664,
        -0.47692386034122425,
        0.47990763948395543,
        0.6499138294372258
      ],
      [
        0.2761365892574159,
        0.2253420173079803,
        0.20762888070014052,
        0.8415322136016283
      ],
      [
        -0.6609605902291018,
        0.9051435469051712,
        0.4863623147808833,
        -0.6793605344712361
      ],
      [
        -0.5192862350817653,
        0.7882113311447965,
        -0.33274160696315214,
        0.5120562166265015
      ],
      [
        -0.23664666215173735,
        -0.74245774672471,
        -0.3201532156392317,
        0.23020074751208686
      ],
      [
        0.03457911137770209,
        0.14755572003637862,
        0.20026649457696433,
        0.9030237131193597
      ],
      [
        -0.8299328089309883,
        -0.5926495022468785,
        0.23249548313726853,
        0.11234096393676296
      ],
      [
        0.1754971796977114,
        -0.6990239037479702,
        0.16853431368513272,
        0.607236026485614
      ],
      [
        0.262262100101017,
        -0.23716782261750557,
        0.09985477942193821,
        0.1880398890850894
      ],
      [
        0.9536862213129194,
        0.6586245804143882,
        -0.5803043582448368,
        0.4806157019410344
      ],
      [
        -0.3668017748836827,
        -0.6358986477612967,
        -0.3933221826378377,
        0.3078650872537292
      ],
      [
        -0.7043097474712394,
        -0.02259230644718402,
        -0.2015730748520017,
        -0.6942264474530413
      ],
      [
        0.9935042245571419,
        -0.632047899933883,
        0.5947907232343073,
        -0.25550991628522013
      ],
      [
        -0.054535647454582836,
        0.723272318819772,
        -0.2571685365196976,
        0.3354199318509572
      ],
      [
        -0.20315255123844844,
        -0.5058218272808133,
        -0.5786987698402646,
        -0.5105747691943483
      ],
      [
        0.28580276655481285,
        -0.8130665888404409,
        0.3521917149647571,
        -0.8644688915202163
      ],
      [
        -0.7932248951608756,
        0.42451256278182736,
        -0.024870916325544723,
        -0.670217543195573
      ],
      [
        0.8097089987856019,
        -0.6932430464606014,
        -0.9287438895778544,
        -0.750210954210544
      ],
      [
        0.11718358853309052,
        0.4179699761099829,
        0.2038442207571287,
        0.14654797067341852
      ],
      [
        0.4976538935684274,
        0.4450484714698981,
        -0.854125240904013,
        0.5575874867065087
      ],
      [
        -0.7872148018218237,
        -0.22530323332966828,
        0.5407831046525975,
        -0.41712095165452645
      ],
      [
        0.9265254672919179,
        -0.4636831352036541,
        0.6313019720282225,
        0.08551981915157159
      ],
      [
        0.7007569107758336,
        -0.8042909407054109,
        0.7979638936134208,
        0.06288730272944454
      ],
      [
        -0.04840634028738977,
        -0.5977464292807082,
        -0.37592982750554516,
        0.9833332311877827
      ]
    ]
  }
}